<?xml version="1.0"?>
<opencv_storage>
<cascade>
  <stageType>BOOST</stageType>
  <featureType>HAAR</featureType>
  <height>20</height>
  <width>20</width>
  <stageParams>
    <boostType>GAB</boostType>
    <minHitRate>9.9500000476837158e-01</minHitRate>
    <maxFalseAlarm>5.0000000000000000e-01</maxFalseAlarm>
    <weightTrimRate>9.4999999999999996e-01</weightTrimRate>
    <maxDepth>1</maxDepth>
    <maxWeakCount>100</maxWeakCount></stageParams>
  <featureParams>
    <maxCatCount>0</maxCatCount>
    <featSize>1</featSize>
    <mode>BASIC</mode></featureParams>
  <stageNum>10</stageNum>
  <stages>
    <!-- stage 0 -->
    <_>
      <maxWeakCount>5</maxWeakCount>
      <stageThreshold>-1.0409536361694336e+00</stageThreshold>
      <weakClassifiers>
        <_>
          <internalNodes>
            0 -1 51 8.2118147984147072e-03</internalNodes>
          <leafValues>
            -6.9859153032302856e-01 7.0150750875473022e-01</leafValues></_>
        <_>
          <internalNodes>
            0 -1 55 1.9516343250870705e-02</internalNodes>
          <leafValues>
            -3.6329346895217896e-01 7.6038652658462524e-01</leafValues></_>
        <_>
          <internalNodes>
            0 -1 104 3.2331692054867744e-03</internalNodes>
          <leafValues>
            -4.7609403729438782e-01 5.5472368001937866e-01</leafValues></_>
        <_>
          <internalNodes>
            0 -1 28 -9.2022763565182686e-03</internalNodes>
          <leafValues>
            6.0286599397659302e-01 -3.1531378626823425e-01</leafValues></_>
        <_>
          <internalNodes>
            0 -1 43 -5.3353821858763695e-03</internalNodes>
          <leafValues>
            6.2368369102478027e-01 -3.1134083867073059e-01</leafValues></_></weakClassifiers></_>
    <!-- stage 1 -->
    <_>
      <maxWeakCount>6</maxWeakCount>
      <stageThreshold>-4.6578139066696167e-01</stageThreshold>
      <weakClassifiers>
        <_>
          <internalNodes>
            0 -1 93 5.0570396706461906e-03</internalNodes>
          <leafValues>
            -1.1846946179866791e-01 7.9120057821273804e-01</leafValues></_>
        <_>
          <internalNodes>
            0 -1 55 4.1522972285747528e-02</internalNodes>
          <leafValues>
            -1.8307925760746002e-01 8.0622130632400513e-01</leafValues></_>
        <_>
          <internalNodes>
            0 -1 29 -4.5419721864163876e-03</internalNodes>
          <leafValues>
            6.6947048902511597e-01 -2.2855100035667419e-01</leafValues></_>
        <_>
          <internalNodes>
            0 -1 120 -3.5131508484482765e-03</internalNodes>
          <leafValues>
            6.1266595125198364e-01 -2.9029610753059387e-01</leafValues></_>
        <_>
          <internalNodes>
            0 -1 5 -1.4979252219200134e-01</internalNodes>
          <leafValues>
            9.1042482852935791e-01 -1.9418095052242279e-01</leafValues></_>
        <_>
          <internalNodes>
            0 -1 14 -1.1318728327751160e-02</internalNodes>
          <leafValues>
            6.6318756341934204e-01 -3.4922611713409424e-01</leafValues></_></weakClassifiers></_>
    <!-- stage 2 -->
    <_>
      <maxWeakCount>9</maxWeakCount>
      <stageThreshold>-1.0411316156387329e+00</stageThreshold>
      <weakClassifiers>
        <_>
          <internalNodes>
            0 -1 38 5.0265050958842039e-04</internalNodes>
          <leafValues>
            -1.6305372118949890e-01 6.5466749668121338e-01</leafValues></_>
        <_>
          <internalNodes>
            0 -1 74 1.4976833015680313e-02</internalNodes>
          <leafValues>
            -3.9106410741806030e-01 4.7481277585029602e-01</leafValues></_>
        <_>
          <internalNodes>
            0 -1 79 3.9511404931545258e-02</internalNodes>
          <leafValues>
            -2.6028075814247131e-01 7.0983475446701050e-01</leafValues></_>
        <_>
          <internalNodes>
            0 -1 4 -1.1063358187675476e-01</internalNodes>
          <leafValues>
            9.2369824647903442e-01 -1.9237639009952545e-01</leafValues></_>
        <_>
          <internalNodes>
            0 -1 95 -3.1603651586920023e-03</internalNodes>
          <leafValues>
            6.6964739561080933e-01 -2.5548365712165833e-01</leafValues></_>
        <_>
          <internalNodes>
            0 -1 122 -5.8745723217725754e-03</internalNodes>
          <leafValues>
            5.8697944879531860e-01 -2.6497903466224670e-01</leafValues></_>
        <_>
          <internalNodes>
            0 -1 52 -3.5365680232644081e-03</internalNodes>
          <leafValues>
            6.2652564048767090e-01 -2.1099409461021423e-01</leafValues></_>
        <_>
          <internalNodes>
            0 -1 108 -3.9676707237958908e-03</internalNodes>
          <leafValues>
            5.7833749055862427e-01 -2.1261963248252869e-01</leafValues></_>
        <_>
          <internalNodes>
            0 -1 116 3.8832076825201511e-03</internalNodes>
          <leafValues>
            -2.0635484158992767e-01 7.2910308837890625e-01</leafValues></_></weakClassifiers></_>
    <!-- stage 3 -->
    <_>
      <maxWeakCount>13</maxWeakCount>
      <stageThreshold>-9.7258633375167847e-01</stageThreshold>
      <weakClassifiers>
        <_>
          <internalNodes>
            0 -1 110 -3.2951834145933390e-04</internalNodes>
          <leafValues>
            -5.3919237852096558e-01 4.9451515078544617e-01</leafValues></_>
        <_>
          <internalNodes>
            0 -1 78 -5.3228540346026421e-03</internalNodes>
          <leafValues>
            5.7968568801879883e-01 -2.5351765751838684e-01</leafValues></_>
        <_>
          <internalNodes>
            0 -1 89 5.7125217281281948e-03</internalNodes>
          <leafValues>
            -4.9509572982788086e-01 2.8674587607383728e-01</leafValues></_>
        <_>
          <internalNodes>
            0 -1 44 -1.6639821231365204e-02</internalNodes>
          <leafValues>
            5.7455748319625854e-01 -2.3399193584918976e-01</leafValues></_>
        <_>
          <internalNodes>
            0 -1 35 -1.2007753551006317e-01</internalNodes>
          <leafValues>
            8.9182233810424805e-01 -1.4465700089931488e-01</leafValues></_>
        <_>
          <internalNodes>
            0 -1 48 -3.1368579715490341e-02</internalNodes>
          <leafValues>
            5.0285923480987549e-01 -3.0819693207740784e-01</leafValues></_>
        <_>
          <internalNodes>
            0 -1 76 9.2316837981343269e-03</internalNodes>
          <leafValues>
            -2.0534232258796692e-01 5.8502519130706787e-01</leafValues></_>
        <_>
          <internalNodes>
            0 -1 20 -5.9729265049099922e-03</internalNodes>
          <leafValues>
            5.8416533470153809e-01 -1.8979807198047638e-01</leafValues></_>
        <_>
          <internalNodes>
            0 -1 91 6.8516246974468231e-03</internalNodes>
          <leafValues>
            1.4186310768127441e-01 -8.7215554714202881e-01</leafValues></_>
        <_>
          <internalNodes>
            0 -1 12 -5.8279437944293022e-03</internalNodes>
          <leafValues>
            4.2973554134368896e-01 -2.6323586702346802e-01</leafValues></_>
        <_>
          <internalNodes>
            0 -1 63 -5.5200379574671388e-04</internalNodes>
          <leafValues>
            3.9287695288658142e-01 -3.0205544829368591e-01</leafValues></_>
        <_>
          <internalNodes>
            0 -1 10 -3.9489690214395523e-02</internalNodes>
          <leafValues>
            6.7397046089172363e-01 -1.9516350328922272e-01</leafValues></_>
        <_>
          <internalNodes>
            0 -1 52 -2.7249325066804886e-03</internalNodes>
          <leafValues>
            4.8875343799591064e-01 -2.0285142958164215e-01</leafValues></_></weakClassifiers></_>
    <!-- stage 4 -->
    <_>
      <maxWeakCount>12</maxWeakCount>
      <stageThreshold>-7.3635512590408325e-01</stageThreshold>
      <weakClassifiers>
        <_>
          <internalNodes>
            0 -1 72 -2.4086649063974619e-03</internalNodes>
          <leafValues>
            -7.7865612506866455e-01 4.4830405712127686e-01</leafValues></_>
        <_>
          <internalNodes>
            0 -1 59 -5.3941896185278893e-03</internalNodes>
          <leafValues>
            6.0723042488098145e-01 -1.6354079544544220e-01</leafValues></_>
        <_>
          <internalNodes>
            0 -1 58 -5.9004295617341995e-03</internalNodes>
          <leafValues>
            5.5238342285156250e-01 -2.6745802164077759e-01</leafValues></_>
        <_>
          <internalNodes>
            0 -1 94 1.2353314086794853e-02</internalNodes>
          <leafValues>
            -2.3306269943714142e-01 5.3425717353820801e-01</leafValues></_>
        <_>
          <internalNodes>
            0 -1 16 -1.5322821214795113e-02</internalNodes>
          <leafValues>
            7.1957898139953613e-01 -1.4400224387645721e-01</leafValues></_>
        <_>
          <internalNodes>
            0 -1 83 -7.3129929602146149e-02</internalNodes>
          <leafValues>
            8.4917956590652466e-01 -1.3974651694297791e-01</leafValues></_>
        <_>
          <internalNodes>
            0 -1 23 7.5630089268088341e-03</internalNodes>
          <leafValues>
            -3.3736041188240051e-01 4.4642236828804016e-01</leafValues></_>
        <_>
          <internalNodes>
            0 -1 115 2.0278509706258774e-02</internalNodes>
          <leafValues>
            -1.8096201121807098e-01 6.7119503021240234e-01</leafValues></_>
        <_>
          <internalNodes>
            0 -1 118 -1.5296229685191065e-04</internalNodes>
          <leafValues>
            -4.3350765109062195e-01 2.3355071246623993e-01</leafValues></_>
        <_>
          <internalNodes>
            0 -1 6 -2.7460616827011108e-01</internalNodes>
          <leafValues>
            7.8918927907943726e-01 -1.1535865813493729e-01</leafValues></_>
        <_>
          <internalNodes>
            0 -1 45 1.9608924165368080e-02</internalNodes>
          <leafValues>
            -2.8465384244918823e-01 4.6415677666664124e-01</leafValues></_>
        <_>
          <internalNodes>
            0 -1 90 -4.0063317865133286e-03</internalNodes>
          <leafValues>
            -8.2232254743576050e-01 1.2606756389141083e-01</leafValues></_></weakClassifiers></_>
    <!-- stage 5 -->
    <_>
      <maxWeakCount>16</maxWeakCount>
      <stageThreshold>-7.4272829294204712e-01</stageThreshold>
      <weakClassifiers>
        <_>
          <internalNodes>
            0 -1 87 -1.5942710451781750e-03</internalNodes>
          <leafValues>
            -5.1219511032104492e-01 4.5025295019149780e-01</leafValues></_>
        <_>
          <internalNodes>
            0 -1 67 9.6942509117070585e-05</internalNodes>
          <leafValues>
            2.5891456007957458e-01 -4.8232004046440125e-01</leafValues></_>
        <_>
          <internalNodes>
            0 -1 49 -7.3768990114331245e-03</internalNodes>
          <leafValues>
            -7.7552270889282227e-01 1.3770835101604462e-01</leafValues></_>
        <_>
          <internalNodes>
            0 -1 17 -6.6588888876140118e-03</internalNodes>
          <leafValues>
            3.9564737677574158e-01 -2.4630589783191681e-01</leafValues></_>
        <_>
          <internalNodes>
            0 -1 109 -2.1168058738112450e-03</internalNodes>
          <leafValues>
            4.0465268492698669e-01 -2.3874038457870483e-01</leafValues></_>
        <_>
          <internalNodes>
            0 -1 108 -5.0904508680105209e-03</internalNodes>
          <leafValues>
            4.5189285278320312e-01 -2.6358279585838318e-01</leafValues></_>
        <_>
          <internalNodes>
            0 -1 92 7.3977345600724220e-03</internalNodes>
          <leafValues>
            -2.3019322752952576e-01 4.0459656715393066e-01</leafValues></_>
        <_>
          <internalNodes>
            0 -1 86 1.4514999091625214e-01</internalNodes>
          <leafValues>
            -1.8868146836757660e-01 8.3210420608520508e-01</leafValues></_>
        <_>
          <internalNodes>
            0 -1 36 3.4664821578189731e-04</internalNodes>
          <leafValues>
            -3.8946273922920227e-01 3.3069422841072083e-01</leafValues></_>
        <_>
          <internalNodes>
            0 -1 85 8.6500523611903191e-03</internalNodes>
          <leafValues>
            -1.8953384459018707e-01 4.7165021300315857e-01</leafValues></_>
        <_>
          <internalNodes>
            0 -1 61 5.0688493065536022e-03</internalNodes>
          <leafValues>
            -2.1605265140533447e-01 4.6390911936759949e-01</leafValues></_>
        <_>
          <internalNodes>
            0 -1 19 3.4209765493869781e-02</internalNodes>
          <leafValues>
            -1.3460518419742584e-01 6.5671682357788086e-01</leafValues></_>
        <_>
          <internalNodes>
            0 -1 31 -1.5718663111329079e-02</internalNodes>
          <leafValues>
            6.2604832649230957e-01 -1.3558134436607361e-01</leafValues></_>
        <_>
          <internalNodes>
            0 -1 21 -1.0680348612368107e-02</internalNodes>
          <leafValues>
            1.9720661640167236e-01 -4.5006501674652100e-01</leafValues></_>
        <_>
          <internalNodes>
            0 -1 121 -7.5106248259544373e-03</internalNodes>
          <leafValues>
            4.5538350939750671e-01 -1.9076733291149139e-01</leafValues></_>
        <_>
          <internalNodes>
            0 -1 81 5.6849140673875809e-03</internalNodes>
          <leafValues>
            1.0118763893842697e-01 -9.1991424560546875e-01</leafValues></_></weakClassifiers></_>
    <!-- stage 6 -->
    <_>
      <maxWeakCount>13</maxWeakCount>
      <stageThreshold>-7.5897127389907837e-01</stageThreshold>
      <weakClassifiers>
        <_>
          <internalNodes>
            0 -1 68 -5.6370836682617664e-04</internalNodes>
          <leafValues>
            5.8801954984664917e-01 -5.8270677924156189e-02</leafValues></_>
        <_>
          <internalNodes>
            0 -1 88 5.6628407910466194e-03</internalNodes>
          <leafValues>
            1.5728530287742615e-01 -7.6624804735183716e-01</leafValues></_>
        <_>
          <internalNodes>
            0 -1 42 -5.7512702187523246e-04</internalNodes>
          <leafValues>
            2.7160283923149109e-01 -3.3153644204139709e-01</leafValues></_>
        <_>
          <internalNodes>
            0 -1 55 5.6238055229187012e-02</internalNodes>
          <leafValues>
            -1.7317962646484375e-01 5.4046010971069336e-01</leafValues></_>
        <_>
          <internalNodes>
            0 -1 3 -3.6220541596412659e-01</internalNodes>
          <leafValues>
            8.2602149248123169e-01 -1.7844526469707489e-01</leafValues></_>
        <_>
          <internalNodes>
            0 -1 24 2.0250300876796246e-03</internalNodes>
          <leafValues>
            -1.5564216673374176e-01 5.7402098178863525e-01</leafValues></_>
        <_>
          <internalNodes>
            0 -1 54 -8.2717416808009148e-03</internalNodes>
          <leafValues>
            5.2404159307479858e-01 -1.6569462418556213e-01</leafValues></_>
        <_>
          <internalNodes>
            0 -1 37 8.9568749535828829e-04</internalNodes>
          <leafValues>
            -2.7199327945709229e-01 2.9999247193336487e-01</leafValues></_>
        <_>
          <internalNodes>
            0 -1 99 -1.0659433901309967e-03</internalNodes>
          <leafValues>
            3.7814575433731079e-01 -2.5958698987960815e-01</leafValues></_>
        <_>
          <internalNodes>
            0 -1 40 8.9181913062930107e-03</internalNodes>
          <leafValues>
            1.0492630302906036e-01 -9.0626764297485352e-01</leafValues></_>
        <_>
          <internalNodes>
            0 -1 87 2.8063312638550997e-03</internalNodes>
          <leafValues>
            7.5419627130031586e-02 -8.1648808717727661e-01</leafValues></_>
        <_>
          <internalNodes>
            0 -1 47 1.1178252287209034e-02</internalNodes>
          <leafValues>
            -1.5586136281490326e-01 6.5537565946578979e-01</leafValues></_>
        <_>
          <internalNodes>
            0 -1 56 -3.0779982917010784e-03</internalNodes>
          <leafValues>
            4.6630635857582092e-01 -2.0005938410758972e-01</leafValues></_></weakClassifiers></_>
    <!-- stage 7 -->
    <_>
      <maxWeakCount>19</maxWeakCount>
      <stageThreshold>-8.2316035032272339e-01</stageThreshold>
      <weakClassifiers>
        <_>
          <internalNodes>
            0 -1 69 -8.3040655590593815e-04</internalNodes>
          <leafValues>
            5.7159763574600220e-01 -6.5346531569957733e-02</leafValues></_>
        <_>
          <internalNodes>
            0 -1 8 -7.3960721492767334e-02</internalNodes>
          <leafValues>
            8.2351768016815186e-01 -8.0069974064826965e-02</leafValues></_>
        <_>
          <internalNodes>
            0 -1 13 -7.7530574053525925e-03</internalNodes>
          <leafValues>
            3.5011813044548035e-01 -3.3035585284233093e-01</leafValues></_>
        <_>
          <internalNodes>
            0 -1 97 -2.3257290013134480e-03</internalNodes>
          <leafValues>
            3.6147585511207581e-01 -2.5676497817039490e-01</leafValues></_>
        <_>
          <internalNodes>
            0 -1 104 2.5748068001121283e-03</internalNodes>
          <leafValues>
            -3.9834731817245483e-01 2.0427942276000977e-01</leafValues></_>
        <_>
          <internalNodes>
            0 -1 22 1.9885729998350143e-03</internalNodes>
          <leafValues>
            -1.9805121421813965e-01 3.7518125772476196e-01</leafValues></_>
        <_>
          <internalNodes>
            0 -1 96 -6.1839870177209377e-03</internalNodes>
          <leafValues>
            4.0825632214546204e-01 -2.0612241327762604e-01</leafValues></_>
        <_>
          <internalNodes>
            0 -1 2 -4.1262593865394592e-01</internalNodes>
          <leafValues>
            7.0595502853393555e-01 -1.3569551706314087e-01</leafValues></_>
        <_>
          <internalNodes>
            0 -1 39 1.1270489776507020e-03</internalNodes>
          <leafValues>
            -2.9201641678810120e-01 3.2566410303115845e-01</leafValues></_>
        <_>
          <internalNodes>
            0 -1 33 -8.5799321532249451e-03</internalNodes>
          <leafValues>
            4.2773666977882385e-01 -1.9784235954284668e-01</leafValues></_>
        <_>
          <internalNodes>
            0 -1 105 -3.8621053099632263e-03</internalNodes>
          <leafValues>
            -7.2692364454269409e-01 1.2155679613351822e-01</leafValues></_>
        <_>
          <internalNodes>
            0 -1 66 -3.1621321104466915e-03</internalNodes>
          <leafValues>
            -7.2680932283401489e-01 9.5670759677886963e-02</leafValues></_>
        <_>
          <internalNodes>
            0 -1 30 -5.8329276740550995e-02</internalNodes>
          <leafValues>
            4.6598693728446960e-01 -1.7240488529205322e-01</leafValues></_>
        <_>
          <internalNodes>
            0 -1 25 -3.4748278558254242e-03</internalNodes>
          <leafValues>
            3.2728070020675659e-01 -2.5149038434028625e-01</leafValues></_>
        <_>
          <internalNodes>
            0 -1 117 -4.0903007611632347e-03</internalNodes>
          <leafValues>
            3.8472348451614380e-01 -1.9729986786842346e-01</leafValues></_>
        <_>
          <internalNodes>
            0 -1 70 -4.2957365512847900e-03</internalNodes>
          <leafValues>
            -8.8974499702453613e-01 9.0829923748970032e-02</leafValues></_>
        <_>
          <internalNodes>
            0 -1 124 -1.0680084116756916e-02</internalNodes>
          <leafValues>
            6.1918342113494873e-01 -1.3292421400547028e-01</leafValues></_>
        <_>
          <internalNodes>
            0 -1 57 -2.9205265454947948e-03</internalNodes>
          <leafValues>
            -7.2788894176483154e-01 1.2660355865955353e-01</leafValues></_>
        <_>
          <internalNodes>
            0 -1 57 3.6076214164495468e-03</internalNodes>
          <leafValues>
            1.0991518199443817e-01 -6.7022573947906494e-01</leafValues></_></weakClassifiers></_>
    <!-- stage 8 -->
    <_>
      <maxWeakCount>18</maxWeakCount>
      <stageThreshold>-6.9731110334396362e-01</stageThreshold>
      <weakClassifiers>
        <_>
          <internalNodes>
            0 -1 114 -6.4271884039044380e-03</internalNodes>
          <leafValues>
            -6.8361580371856689e-01 4.0467697381973267e-01</leafValues></_>
        <_>
          <internalNodes>
            0 -1 11 1.7243957147002220e-02</internalNodes>
          <leafValues>
            -1.7331582307815552e-01 4.2024102807044983e-01</leafValues></_>
        <_>
          <internalNodes>
            0 -1 60 -1.0395369678735733e-01</internalNodes>
          <leafValues>
            8.3932632207870483e-01 -1.2743689119815826e-01</leafValues></_>
        <_>
          <internalNodes>
            0 -1 77 -8.6686965078115463e-03</internalNodes>
          <leafValues>
            3.3938318490982056e-01 -2.3989766836166382e-01</leafValues></_>
        <_>
          <internalNodes>
            0 -1 15 1.1439081281423569e-02</internalNodes>
          <leafValues>
            -1.6776065528392792e-01 4.5470461249351501e-01</leafValues></_>
        <_>
          <internalNodes>
            0 -1 102 1.4797337353229523e-03</internalNodes>
          <leafValues>
            -4.6230530738830566e-01 1.4292129874229431e-01</leafValues></_>
        <_>
          <internalNodes>
            0 -1 123 8.5200406610965729e-03</internalNodes>
          <leafValues>
            -1.6755053400993347e-01 4.0605580806732178e-01</leafValues></_>
        <_>
          <internalNodes>
            0 -1 0 4.3145669624209404e-03</internalNodes>
          <leafValues>
            -1.7228806018829346e-01 4.2088478803634644e-01</leafValues></_>
        <_>
          <internalNodes>
            0 -1 107 -2.8296266682446003e-03</internalNodes>
          <leafValues>
            -6.1810117959976196e-01 1.1884350329637527e-01</leafValues></_>
        <_>
          <internalNodes>
            0 -1 62 -2.1281619556248188e-03</internalNodes>
          <leafValues>
            3.3372059464454651e-01 -2.1882632374763489e-01</leafValues></_>
        <_>
          <internalNodes>
            0 -1 103 -1.4777071774005890e-03</internalNodes>
          <leafValues>
            2.5087466835975647e-01 -2.8084599971771240e-01</leafValues></_>
        <_>
          <internalNodes>
            0 -1 64 -2.4842503480613232e-03</internalNodes>
          <leafValues>
            -8.2640039920806885e-01 8.9311033487319946e-02</leafValues></_>
        <_>
          <internalNodes>
            0 -1 111 -1.9984580576419830e-03</internalNodes>
          <leafValues>
            3.7414222955703735e-01 -2.0247195661067963e-01</leafValues></_>
        <_>
          <internalNodes>
            0 -1 119 9.7185990307480097e-04</internalNodes>
          <leafValues>
            -2.9766979813575745e-01 3.6779057979583740e-01</leafValues></_>
        <_>
          <internalNodes>
            0 -1 46 -5.6252544745802879e-03</internalNodes>
          <leafValues>
            4.3505460023880005e-01 -1.5542297065258026e-01</leafValues></_>
        <_>
          <internalNodes>
            0 -1 58 1.2357166036963463e-02</internalNodes>
          <leafValues>
            -1.4277394115924835e-01 5.6046974658966064e-01</leafValues></_>
        <_>
          <internalNodes>
            0 -1 9 -9.2677157372236252e-03</internalNodes>
          <leafValues>
            4.0127655863761902e-01 -2.0708025991916656e-01</leafValues></_>
        <_>
          <internalNodes>
            0 -1 53 -3.5457080230116844e-03</internalNodes>
          <leafValues>
            -5.9086507558822632e-01 1.3571399450302124e-01</leafValues></_></weakClassifiers></_>
    <!-- stage 9 -->
    <_>
      <maxWeakCount>24</maxWeakCount>
      <stageThreshold>-8.1059145927429199e-01</stageThreshold>
      <weakClassifiers>
        <_>
          <internalNodes>
            0 -1 113 4.4726263731718063e-03</internalNodes>
          <leafValues>
            4.0722891688346863e-01 -5.4285717010498047e-01</leafValues></_>
        <_>
          <internalNodes>
            0 -1 112 -1.8989504314959049e-03</internalNodes>
          <leafValues>
            3.5694631934165955e-01 -1.7480805516242981e-01</leafValues></_>
        <_>
          <internalNodes>
            0 -1 82 1.0016530752182007e-02</internalNodes>
          <leafValues>
            -1.8383471667766571e-01 4.6038588881492615e-01</leafValues></_>
        <_>
          <internalNodes>
            0 -1 1 -1.3159969449043274e-01</internalNodes>
          <leafValues>
            8.5761266946792603e-01 -1.3081027567386627e-01</leafValues></_>
        <_>
          <internalNodes>
            0 -1 18 -1.1198271065950394e-02</internalNodes>
          <leafValues>
            3.3281460404396057e-01 -2.4344040453433990e-01</leafValues></_>
        <_>
          <internalNodes>
            0 -1 80 8.3174537867307663e-03</internalNodes>
          <leafValues>
            -2.0905615389347076e-01 3.5025960206985474e-01</leafValues></_>
        <_>
          <internalNodes>
            0 -1 50 -4.2260321788489819e-04</internalNodes>
          <leafValues>
            2.4414710700511932e-01 -2.6333850622177124e-01</leafValues></_>
        <_>
          <internalNodes>
            0 -1 110 -4.6792425564490259e-04</internalNodes>
          <leafValues>
            -6.6756230592727661e-01 1.0665476322174072e-01</leafValues></_>
        <_>
          <internalNodes>
            0 -1 120 -3.8212097715586424e-03</internalNodes>
          <leafValues>
            3.1095308065414429e-01 -2.3457503318786621e-01</leafValues></_>
        <_>
          <internalNodes>
            0 -1 84 -2.6944973506033421e-03</internalNodes>
          <leafValues>
            3.7662735581398010e-01 -1.5634179115295410e-01</leafValues></_>
        <_>
          <internalNodes>
            0 -1 106 2.8022793121635914e-03</internalNodes>
          <leafValues>
            8.8601678609848022e-02 -7.3261338472366333e-01</leafValues></_>
        <_>
          <internalNodes>
            0 -1 27 -4.7826571390032768e-03</internalNodes>
          <leafValues>
            2.8629049658775330e-01 -2.3675896227359772e-01</leafValues></_>
        <_>
          <internalNodes>
            0 -1 75 -3.1099494080990553e-03</internalNodes>
          <leafValues>
            3.9232531189918518e-01 -1.6505086421966553e-01</leafValues></_>
        <_>
          <internalNodes>
            0 -1 73 -5.0065033137798309e-03</internalNodes>
          <leafValues>
            -7.5724786520004272e-01 9.1730877757072449e-02</leafValues></_>
        <_>
          <internalNodes>
            0 -1 65 -2.0318592432886362e-03</internalNodes>
          <leafValues>
            3.1878837943077087e-01 -2.1907210350036621e-01</leafValues></_>
        <_>
          <internalNodes>
            0 -1 100 -1.7246246337890625e-02</internalNodes>
          <leafValues>
            6.8108898401260376e-01 -1.4029535651206970e-01</leafValues></_>
        <_>
          <internalNodes>
            0 -1 71 7.8540266258642077e-05</internalNodes>
          <leafValues>
            1.9669154286384583e-01 -4.4836980104446411e-01</leafValues></_>
        <_>
          <internalNodes>
            0 -1 32 -1.3797838240861893e-02</internalNodes>
          <leafValues>
            2.1819221973419189e-01 -3.2316520810127258e-01</leafValues></_>
        <_>
          <internalNodes>
            0 -1 34 -1.5369039773941040e-01</internalNodes>
          <leafValues>
            6.8258225917816162e-01 -1.0330533981323242e-01</leafValues></_>
        <_>
          <internalNodes>
            0 -1 41 8.0209085717797279e-04</internalNodes>
          <leafValues>
            -2.2985495626926422e-01 2.8885334730148315e-01</leafValues></_>
        <_>
          <internalNodes>
            0 -1 7 -3.9506256580352783e-02</internalNodes>
          <leafValues>
            4.6074286103248596e-01 -1.5709687769412994e-01</leafValues></_>
        <_>
          <internalNodes>
            0 -1 98 -4.9048606306314468e-03</internalNodes>
          <leafValues>
            4.7523677349090576e-01 -1.3173680007457733e-01</leafValues></_>
        <_>
          <internalNodes>
            0 -1 26 -9.5121618360280991e-03</internalNodes>
          <leafValues>
            5.0427901744842529e-01 -1.1594617366790771e-01</leafValues></_>
        <_>
          <internalNodes>
            0 -1 101 1.1285759974271059e-03</internalNodes>
          <leafValues>
            -1.6288185119628906e-01 3.8252797722816467e-01</leafValues></_></weakClassifiers></_></stages>
  <features>
    <_>
      <rects>
        <_>
          0 2 2 5 -1.</_>
        <_>
          1 2 1 5 2.</_></rects>
      <tilted>0</tilted></_>
    <_>
      <rects>
        <_>
          0 12 18 2 -1.</_>
        <_>
          6 12 6 2 3.</_></rects>
      <tilted>0</tilted></_>
    <_>
      <rects>
        <_>
          1 3 18 15 -1.</_>
        <_>
          7 3 6 15 3.</_></rects>
      <tilted>0</tilted></_>
    <_>
      <rects>
        <_>
          1 11 18 8 -1.</_>
        <_>
          7 11 6 8 3.</_></rects>
      <tilted>0</tilted></_>
    <_>
      <rects>
        <_>
          1 12 18 2 -1.</_>
        <_>
          7 12 6 2 3.</_></rects>
      <tilted>0</tilted></_>
    <_>
      <rects>
        <_>
          1 12 18 3 -1.</_>
        <_>
          7 12 6 3 3.</_></rects>
      <tilted>0</tilted></_>
    <_>
      <rects>
        <_>
          1 12 18 6 -1.</_>
        <_>
          7 12 6 6 3.</_></rects>
      <tilted>0</tilted></_>
    <_>
      <rects>
        <_>
          2 2 16 4 -1.</_>
        <_>
          2 2 8 2 2.</_>
        <_>
          10 4 8 2 2.</_></rects>
      <tilted>0</tilted></_>
    <_>
      <rects>
        <_>
          2 11 8 4 -1.</_>
        <_>
          6 11 4 4 2.</_></rects>
      <tilted>0</tilted></_>
    <_>
      <rects>
        <_>
          2 13 6 2 -1.</_>
        <_>
          5 13 3 2 2.</_></rects>
      <tilted>0</tilted></_>
    <_>
      <rects>
        <_>
          3 1 16 4 -1.</_>
        <_>
          3 1 8 2 2.</_>
        <_>
          11 3 8 2 2.</_></rects>
      <tilted>0</tilted></_>
    <_>
      <rects>
        <_>
          3 12 12 3 -1.</_>
        <_>
          7 12 4 3 3.</_></rects>
      <tilted>0</tilted></_>
    <_>
      <rects>
        <_>
          3 14 6 1 -1.</_>
        <_>
          6 14 3 1 2.</_></rects>
      <tilted>0</tilted></_>
    <_>
      <rects>
        <_>
          3 18 11 2 -1.</_>
        <_>
          3 19 11 1 2.</_></rects>
      <tilted>0</tilted></_>
    <_>
      <rects>
        <_>
          3 18 14 2 -1.</_>
        <_>
          3 19 14 1 2.</_></rects>
      <tilted>0</tilted></_>
    <_>
      <rects>
        <_>
          4 1 8 2 -1.</_>
        <_>
          4 1 4 1 2.</_>
        <_>
          8 2 4 1 2.</_></rects>
      <tilted>0</tilted></_>
    <_>
      <rects>
        <_>
          4 3 8 2 -1.</_>
        <_>
          4 3 4 1 2.</_>
        <_>
          8 4 4 1 2.</_></rects>
      <tilted>0</tilted></_>
    <_>
      <rects>
        <_>
          4 16 4 3 -1.</_>
        <_>
          4 17 4 1 3.</_></rects>
      <tilted>0</tilted></_>
    <_>
      <rects>
        <_>
          4 18 11 2 -1.</_>
        <_>
          4 19 11 1 2.</_></rects>
      <tilted>0</tilted></_>
    <_>
      <rects>
        <_>
          5 1 10 4 -1.</_>
        <_>
          5 1 5 2 2.</_>
        <_>
          10 3 5 2 2.</_></rects>
      <tilted>0</tilted></_>
    <_>
      <rects>
        <_>
          5 2 2 3 -1.</_>
        <_>
          5 3 2 1 3.</_></rects>
      <tilted>0</tilted></_>
    <_>
      <rects>
        <_>
          5 2 10 12 -1.</_>
        <_>
          5 8 10 6 2.</_></rects>
      <tilted>0</tilted></_>
    <_>
      <rects>
        <_>
          5 11 2 2 -1.</_>
        <_>
          6 11 1 2 2.</_></rects>
      <tilted>0</tilted></_>
    <_>
      <rects>
        <_>
          5 11 6 3 -1.</_>
        <_>
          7 11 2 3 3.</_></rects>
      <tilted>0</tilted></_>
    <_>
      <rects>
        <_>
          5 12 2 2 -1.</_>
        <_>
          6 12 1 2 2.</_></rects>
      <tilted>0</tilted></_>
    <_>
      <rects>
        <_>
          5 14 4 2 -1.</_>
        <_>
          7 14 2 2 2.</_></rects>
      <tilted>0</tilted></_>
    <_>
      <rects>
        <_>
          5 15 3 3 -1.</_>
        <_>
          5 16 3 1 3.</_></rects>
      <tilted>0</tilted></_>
    <_>
      <rects>
        <_>
          5 16 4 3 -1.</_>
        <_>
          5 17 4 1 3.</_></rects>
      <tilted>0</tilted></_>
    <_>
      <rects>
        <_>
          5 18 10 2 -1.</_>
        <_>
          5 19 10 1 2.</_></rects>
      <tilted>0</tilted></_>
    <_>
      <rects>
        <_>
          6 2 2 3 -1.</_>
        <_>
          6 3 2 1 3.</_></rects>
      <tilted>0</tilted></_>
    <_>
      <rects>
        <_>
          6 2 4 12 -1.</_>
        <_>
          6 6 4 4 3.</_></rects>
      <tilted>0</tilted></_>
    <_>
      <rects>
        <_>
          6 2 10 2 -1.</_>
        <_>
          6 2 5 1 2.</_>
        <_>
          11 3 5 1 2.</_></rects>
      <tilted>0</tilted></_>
    <_>
      <rects>
        <_>
          6 2 6 6 -1.</_>
        <_>
          6 5 6 3 2.</_></rects>
      <tilted>0</tilted></_>
    <_>
      <rects>
        <_>
          6 3 6 2 -1.</_>
        <_>
          6 3 3 1 2.</_>
        <_>
          9 4 3 1 2.</_></rects>
      <tilted>0</tilted></_>
    <_>
      <rects>
        <_>
          6 5 7 10 -1.</_>
        <_>
          6 10 7 5 2.</_></rects>
      <tilted>0</tilted></_>
    <_>
      <rects>
        <_>
          6 7 7 8 -1.</_>
        <_>
          6 11 7 4 2.</_></rects>
      <tilted>0</tilted></_>
    <_>
      <rects>
        <_>
          6 11 2 1 -1.</_>
        <_>
          7 11 1 1 2.</_></rects>
      <tilted>0</tilted></_>
    <_>
      <rects>
        <_>
          6 11 3 1 -1.</_>
        <_>
          7 11 1 1 3.</_></rects>
      <tilted>0</tilted></_>
    <_>
      <rects>
        <_>
          6 11 2 2 -1.</_>
        <_>
          7 11 1 2 2.</_></rects>
      <tilted>0</tilted></_>
    <_>
      <rects>
        <_>
          6 11 2 3 -1.</_>
        <_>
          7 11 1 3 2.</_></rects>
      <tilted>0</tilted></_>
    <_>
      <rects>
        <_>
          6 11 3 3 -1.</_>
        <_>
          7 11 1 3 3.</_></rects>
      <tilted>0</tilted></_>
    <_>
      <rects>
        <_>
          6 12 3 2 -1.</_>
        <_>
          7 12 1 2 3.</_></rects>
      <tilted>0</tilted></_>
    <_>
      <rects>
        <_>
          6 14 6 2 -1.</_>
        <_>
          6 14 3 1 2.</_>
        <_>
          9 15 3 1 2.</_></rects>
      <tilted>0</tilted></_>
    <_>
      <rects>
        <_>
          6 16 3 3 -1.</_>
        <_>
          6 17 3 1 3.</_></rects>
      <tilted>0</tilted></_>
    <_>
      <rects>
        <_>
          6 18 10 2 -1.</_>
        <_>
          6 19 10 1 2.</_></rects>
      <tilted>0</tilted></_>
    <_>
      <rects>
        <_>
          7 0 6 4 -1.</_>
        <_>
          7 2 6 2 2.</_></rects>
      <tilted>0</tilted></_>
    <_>
      <rects>
        <_>
          7 2 2 2 -1.</_>
        <_>
          7 3 2 1 2.</_></rects>
      <tilted>0</tilted></_>
    <_>
      <rects>
        <_>
          7 2 6 2 -1.</_>
        <_>
          7 2 3 1 2.</_>
        <_>
          10 3 3 1 2.</_></rects>
      <tilted>0</tilted></_>
    <_>
      <rects>
        <_>
          7 2 6 6 -1.</_>
        <_>
          7 5 6 3 2.</_></rects>
      <tilted>0</tilted></_>
    <_>
      <rects>
        <_>
          7 11 3 8 -1.</_>
        <_>
          7 15 3 4 2.</_></rects>
      <tilted>0</tilted></_>
    <_>
      <rects>
        <_>
          7 13 2 4 -1.</_>
        <_>
          7 13 1 2 2.</_>
        <_>
          8 15 1 2 2.</_></rects>
      <tilted>0</tilted></_>
    <_>
      <rects>
        <_>
          7 13 6 6 -1.</_>
        <_>
          7 16 6 3 2.</_></rects>
      <tilted>0</tilted></_>
    <_>
      <rects>
        <_>
          7 16 1 3 -1.</_>
        <_>
          7 17 1 1 3.</_></rects>
      <tilted>0</tilted></_>
    <_>
      <rects>
        <_>
          7 16 3 3 -1.</_>
        <_>
          8 16 1 3 3.</_></rects>
      <tilted>0</tilted></_>
    <_>
      <rects>
        <_>
          7 17 6 2 -1.</_>
        <_>
          7 17 3 1 2.</_>
        <_>
          10 18 3 1 2.</_></rects>
      <tilted>0</tilted></_>
    <_>
      <rects>
        <_>
          8 0 4 6 -1.</_>
        <_>
          8 2 4 2 3.</_></rects>
      <tilted>0</tilted></_>
    <_>
      <rects>
        <_>
          8 1 2 3 -1.</_>
        <_>
          8 2 2 1 3.</_></rects>
      <tilted>0</tilted></_>
    <_>
      <rects>
        <_>
          8 2 3 2 -1.</_>
        <_>
          9 2 1 2 3.</_></rects>
      <tilted>0</tilted></_>
    <_>
      <rects>
        <_>
          8 2 2 3 -1.</_>
        <_>
          8 3 2 1 3.</_></rects>
      <tilted>0</tilted></_>
    <_>
      <rects>
        <_>
          8 3 2 3 -1.</_>
        <_>
          8 4 2 1 3.</_></rects>
      <tilted>0</tilted></_>
    <_>
      <rects>
        <_>
          8 6 4 10 -1.</_>
        <_>
          8 11 4 5 2.</_></rects>
      <tilted>0</tilted></_>
    <_>
      <rects>
        <_>
          8 9 6 2 -1.</_>
        <_>
          10 9 2 2 3.</_></rects>
      <tilted>0</tilted></_>
    <_>
      <rects>
        <_>
          8 10 3 2 -1.</_>
        <_>
          9 10 1 2 3.</_></rects>
      <tilted>0</tilted></_>
    <_>
      <rects>
        <_>
          8 11 2 1 -1.</_>
        <_>
          9 11 1 1 2.</_></rects>
      <tilted>0</tilted></_>
    <_>
      <rects>
        <_>
          8 11 1 3 -1.</_>
        <_>
          8 12 1 1 3.</_></rects>
      <tilted>0</tilted></_>
    <_>
      <rects>
        <_>
          8 11 4 1 -1.</_>
        <_>
          10 11 2 1 2.</_></rects>
      <tilted>0</tilted></_>
    <_>
      <rects>
        <_>
          8 11 2 8 -1.</_>
        <_>
          8 15 2 4 2.</_></rects>
      <tilted>0</tilted></_>
    <_>
      <rects>
        <_>
          8 12 1 2 -1.</_>
        <_>
          8 13 1 1 2.</_></rects>
      <tilted>0</tilted></_>
    <_>
      <rects>
        <_>
          8 12 1 4 -1.</_>
        <_>
          8 14 1 2 2.</_></rects>
      <tilted>0</tilted></_>
    <_>
      <rects>
        <_>
          8 12 4 1 -1.</_>
        <_>
          10 12 2 1 2.</_></rects>
      <tilted>0</tilted></_>
    <_>
      <rects>
        <_>
          8 12 2 2 -1.</_>
        <_>
          8 13 2 1 2.</_></rects>
      <tilted>0</tilted></_>
    <_>
      <rects>
        <_>
          8 13 1 2 -1.</_>
        <_>
          8 14 1 1 2.</_></rects>
      <tilted>0</tilted></_>
    <_>
      <rects>
        <_>
          8 13 2 2 -1.</_>
        <_>
          9 13 1 2 2.</_></rects>
      <tilted>0</tilted></_>
    <_>
      <rects>
        <_>
          8 13 4 1 -1.</_>
        <_>
          10 13 2 1 2.</_></rects>
      <tilted>0</tilted></_>
    <_>
      <rects>
        <_>
          8 15 4 4 -1.</_>
        <_>
          8 17 4 2 2.</_></rects>
      <tilted>0</tilted></_>
    <_>
      <rects>
        <_>
          8 17 2 3 -1.</_>
        <_>
          8 18 2 1 3.</_></rects>
      <tilted>0</tilted></_>
    <_>
      <rects>
        <_>
          8 17 8 2 -1.</_>
        <_>
          8 17 4 1 2.</_>
        <_>
          12 18 4 1 2.</_></rects>
      <tilted>0</tilted></_>
    <_>
      <rects>
        <_>
          8 18 6 2 -1.</_>
        <_>
          8 19 6 1 2.</_></rects>
      <tilted>0</tilted></_>
    <_>
      <rects>
        <_>
          9 0 2 3 -1.</_>
        <_>
          9 1 2 1 3.</_></rects>
      <tilted>0</tilted></_>
    <_>
      <rects>
        <_>
          9 0 4 6 -1.</_>
        <_>
          9 2 4 2 3.</_></rects>
      <tilted>0</tilted></_>
    <_>
      <rects>
        <_>
          9 1 2 3 -1.</_>
        <_>
          9 2 2 1 3.</_></rects>
      <tilted>0</tilted></_>
    <_>
      <rects>
        <_>
          9 2 3 2 -1.</_>
        <_>
          10 2 1 2 3.</_></rects>
      <tilted>0</tilted></_>
    <_>
      <rects>
        <_>
          9 3 6 2 -1.</_>
        <_>
          9 3 3 1 2.</_>
        <_>
          12 4 3 1 2.</_></rects>
      <tilted>0</tilted></_>
    <_>
      <rects>
        <_>
          9 6 3 10 -1.</_>
        <_>
          9 11 3 5 2.</_></rects>
      <tilted>0</tilted></_>
    <_>
      <rects>
        <_>
          9 9 2 4 -1.</_>
        <_>
          9 9 1 2 2.</_>
        <_>
          10 11 1 2 2.</_></rects>
      <tilted>0</tilted></_>
    <_>
      <rects>
        <_>
          9 9 2 6 -1.</_>
        <_>
          9 12 2 3 2.</_></rects>
      <tilted>0</tilted></_>
    <_>
      <rects>
        <_>
          9 10 10 8 -1.</_>
        <_>
          14 10 5 8 2.</_></rects>
      <tilted>0</tilted></_>
    <_>
      <rects>
        <_>
          9 12 1 3 -1.</_>
        <_>
          9 13 1 1 3.</_></rects>
      <tilted>0</tilted></_>
    <_>
      <rects>
        <_>
          9 12 2 7 -1.</_>
        <_>
          10 12 1 7 2.</_></rects>
      <tilted>0</tilted></_>
    <_>
      <rects>
        <_>
          9 15 2 4 -1.</_>
        <_>
          9 17 2 2 2.</_></rects>
      <tilted>0</tilted></_>
    <_>
      <rects>
        <_>
          9 16 3 2 -1.</_>
        <_>
          10 16 1 2 3.</_></rects>
      <tilted>0</tilted></_>
    <_>
      <rects>
        <_>
          9 16 3 3 -1.</_>
        <_>
          10 16 1 3 3.</_></rects>
      <tilted>0</tilted></_>
    <_>
      <rects>
        <_>
          9 16 2 3 -1.</_>
        <_>
          9 17 2 1 3.</_></rects>
      <tilted>0</tilted></_>
    <_>
      <rects>
        <_>
          9 16 3 2 -1.</_>
        <_>
          9 17 3 1 2.</_></rects>
      <tilted>0</tilted></_>
    <_>
      <rects>
        <_>
          9 16 3 3 -1.</_>
        <_>
          9 17 3 1 3.</_></rects>
      <tilted>0</tilted></_>
    <_>
      <rects>
        <_>
          9 17 2 2 -1.</_>
        <_>
          9 18 2 1 2.</_></rects>
      <tilted>0</tilted></_>
    <_>
      <rects>
        <_>
          9 17 4 3 -1.</_>
        <_>
          9 18 4 1 3.</_></rects>
      <tilted>0</tilted></_>
    <_>
      <rects>
        <_>
          10 0 1 3 -1.</_>
        <_>
          10 1 1 1 3.</_></rects>
      <tilted>0</tilted></_>
    <_>
      <rects>
        <_>
          10 1 3 3 -1.</_>
        <_>
          10 2 3 1 3.</_></rects>
      <tilted>0</tilted></_>
    <_>
      <rects>
        <_>
          10 2 1 2 -1.</_>
        <_>
          10 3 1 1 2.</_></rects>
      <tilted>0</tilted></_>
    <_>
      <rects>
        <_>
          10 8 1 8 -1.</_>
        <_>
          10 12 1 4 2.</_></rects>
      <tilted>0</tilted></_>
    <_>
      <rects>
        <_>
          10 10 3 1 -1.</_>
        <_>
          11 10 1 1 3.</_></rects>
      <tilted>0</tilted></_>
    <_>
      <rects>
        <_>
          10 12 1 6 -1.</_>
        <_>
          10 15 1 3 2.</_></rects>
      <tilted>0</tilted></_>
    <_>
      <rects>
        <_>
          10 15 1 3 -1.</_>
        <_>
          10 16 1 1 3.</_></rects>
      <tilted>0</tilted></_>
    <_>
      <rects>
        <_>
          10 15 1 4 -1.</_>
        <_>
          10 17 1 2 2.</_></rects>
      <tilted>0</tilted></_>
    <_>
      <rects>
        <_>
          10 16 2 3 -1.</_>
        <_>
          11 16 1 3 2.</_></rects>
      <tilted>0</tilted></_>
    <_>
      <rects>
        <_>
          10 17 3 1 -1.</_>
        <_>
          11 17 1 1 3.</_></rects>
      <tilted>0</tilted></_>
    <_>
      <rects>
        <_>
          11 2 3 2 -1.</_>
        <_>
          12 2 1 2 3.</_></rects>
      <tilted>0</tilted></_>
    <_>
      <rects>
        <_>
          11 2 2 3 -1.</_>
        <_>
          11 3 2 1 3.</_></rects>
      <tilted>0</tilted></_>
    <_>
      <rects>
        <_>
          11 3 1 2 -1.</_>
        <_>
          11 4 1 1 2.</_></rects>
      <tilted>0</tilted></_>
    <_>
      <rects>
        <_>
          11 12 1 6 -1.</_>
        <_>
          11 15 1 3 2.</_></rects>
      <tilted>0</tilted></_>
    <_>
      <rects>
        <_>
          11 12 4 2 -1.</_>
        <_>
          13 12 2 2 2.</_></rects>
      <tilted>0</tilted></_>
    <_>
      <rects>
        <_>
          11 14 6 1 -1.</_>
        <_>
          13 14 2 1 3.</_></rects>
      <tilted>0</tilted></_>
    <_>
      <rects>
        <_>
          11 16 3 2 -1.</_>
        <_>
          12 16 1 2 3.</_></rects>
      <tilted>0</tilted></_>
    <_>
      <rects>
        <_>
          11 16 3 3 -1.</_>
        <_>
          12 16 1 3 3.</_></rects>
      <tilted>0</tilted></_>
    <_>
      <rects>
        <_>
          11 17 4 3 -1.</_>
        <_>
          11 18 4 1 3.</_></rects>
      <tilted>0</tilted></_>
    <_>
      <rects>
        <_>
          12 2 1 3 -1.</_>
        <_>
          12 3 1 1 3.</_></rects>
      <tilted>0</tilted></_>
    <_>
      <rects>
        <_>
          12 2 2 2 -1.</_>
        <_>
          12 3 2 1 2.</_></rects>
      <tilted>0</tilted></_>
    <_>
      <rects>
        <_>
          12 11 1 6 -1.</_>
        <_>
          12 14 1 3 2.</_></rects>
      <tilted>0</tilted></_>
    <_>
      <rects>
        <_>
          12 14 2 2 -1.</_>
        <_>
          13 14 1 2 2.</_></rects>
      <tilted>0</tilted></_>
    <_>
      <rects>
        <_>
          12 16 2 3 -1.</_>
        <_>
          12 17 2 1 3.</_></rects>
      <tilted>0</tilted></_>
    <_>
      <rects>
        <_>
          12 16 3 3 -1.</_>
        <_>
          12 17 3 1 3.</_></rects>
      <tilted>0</tilted></_>
    <_>
      <rects>
        <_>
          13 2 4 3 -1.</_>
        <_>
          13 3 4 1 3.</_></rects>
      <tilted>0</tilted></_>
    <_>
      <rects>
        <_>
          13 9 6 3 -1.</_>
        <_>
          15 9 2 3 3.</_></rects>
      <tilted>0</tilted></_>
    <_>
      <rects>
        <_>
          15 14 2 4 -1.</_>
        <_>
          15 16 2 2 2.</_></rects>
      <tilted>0</tilted></_></features></cascade>
</opencv_storage>
