<?xml version="1.0"?>
<opencv_storage>
<stage4>
  <maxWeakCount>12</maxWeakCount>
  <stageThreshold>-7.3635512590408325e-01</stageThreshold>
  <weakClassifiers>
    <_>
      <internalNodes>
        0 -1 54047 -2.4086649063974619e-03</internalNodes>
      <leafValues>
        -7.7865612506866455e-01 4.4830405712127686e-01</leafValues></_>
    <_>
      <internalNodes>
        0 -1 51314 -5.3941896185278893e-03</internalNodes>
      <leafValues>
        6.0723042488098145e-01 -1.6354079544544220e-01</leafValues></_>
    <_>
      <internalNodes>
        0 -1 50905 -5.9004295617341995e-03</internalNodes>
      <leafValues>
        5.5238342285156250e-01 -2.6745802164077759e-01</leafValues></_>
    <_>
      <internalNodes>
        0 -1 58458 1.2353314086794853e-02</internalNodes>
      <leafValues>
        -2.3306269943714142e-01 5.3425717353820801e-01</leafValues></_>
    <_>
      <internalNodes>
        0 -1 29922 -1.5322821214795113e-02</internalNodes>
      <leafValues>
        7.1957898139953613e-01 -1.4400224387645721e-01</leafValues></_>
    <_>
      <internalNodes>
        0 -1 56754 -7.3129929602146149e-02</internalNodes>
      <leafValues>
        8.4917956590652466e-01 -1.3974651694297791e-01</leafValues></_>
    <_>
      <internalNodes>
        0 -1 38736 7.5630089268088341e-03</internalNodes>
      <leafValues>
        -3.3736041188240051e-01 4.4642236828804016e-01</leafValues></_>
    <_>
      <internalNodes>
        0 -1 65694 2.0278509706258774e-02</internalNodes>
      <leafValues>
        -1.8096201121807098e-01 6.7119503021240234e-01</leafValues></_>
    <_>
      <internalNodes>
        0 -1 68111 -1.5296229685191065e-04</internalNodes>
      <leafValues>
        -4.3350765109062195e-01 2.3355071246623993e-01</leafValues></_>
    <_>
      <internalNodes>
        0 -1 13759 -2.7460616827011108e-01</internalNodes>
      <leafValues>
        7.8918927907943726e-01 -1.1535865813493729e-01</leafValues></_>
    <_>
      <internalNodes>
        0 -1 45462 1.9608924165368080e-02</internalNodes>
      <leafValues>
        -2.8465384244918823e-01 4.6415677666664124e-01</leafValues></_>
    <_>
      <internalNodes>
        0 -1 58436 -4.0063317865133286e-03</internalNodes>
      <leafValues>
        -8.2232254743576050e-01 1.2606756389141083e-01</leafValues></_></weakClassifiers></stage4>
</opencv_storage>
