<?xml version="1.0"?>
<opencv_storage>
<stage2>
  <maxWeakCount>9</maxWeakCount>
  <stageThreshold>-1.0411316156387329e+00</stageThreshold>
  <weakClassifiers>
    <_>
      <internalNodes>
        0 -1 44069 5.0265050958842039e-04</internalNodes>
      <leafValues>
        -1.6305372118949890e-01 6.5466749668121338e-01</leafValues></_>
    <_>
      <internalNodes>
        0 -1 54379 1.4976833015680313e-02</internalNodes>
      <leafValues>
        -3.9106410741806030e-01 4.7481277585029602e-01</leafValues></_>
    <_>
      <internalNodes>
        0 -1 54826 3.9511404931545258e-02</internalNodes>
      <leafValues>
        -2.6028075814247131e-01 7.0983475446701050e-01</leafValues></_>
    <_>
      <internalNodes>
        0 -1 13745 -1.1063358187675476e-01</internalNodes>
      <leafValues>
        9.2369824647903442e-01 -1.9237639009952545e-01</leafValues></_>
    <_>
      <internalNodes>
        0 -1 58514 -3.1603651586920023e-03</internalNodes>
      <leafValues>
        6.6964739561080933e-01 -2.5548365712165833e-01</leafValues></_>
    <_>
      <internalNodes>
        0 -1 69338 -5.8745723217725754e-03</internalNodes>
      <leafValues>
        5.8697944879531860e-01 -2.6497903466224670e-01</leafValues></_>
    <_>
      <internalNodes>
        0 -1 49767 -3.5365680232644081e-03</internalNodes>
      <leafValues>
        6.2652564048767090e-01 -2.1099409461021423e-01</leafValues></_>
    <_>
      <internalNodes>
        0 -1 63096 -3.9676707237958908e-03</internalNodes>
      <leafValues>
        5.7833749055862427e-01 -2.1261963248252869e-01</leafValues></_>
    <_>
      <internalNodes>
        0 -1 66303 3.8832076825201511e-03</internalNodes>
      <leafValues>
        -2.0635484158992767e-01 7.2910308837890625e-01</leafValues></_></weakClassifiers></stage2>
</opencv_storage>
